digraph Tree {
node [shape=box] ;
0 [label="Pop2010_x <= 20583.5\nentropy = 1.037\nsamples = 314\nvalue = [24, 235, 55]\nclass = Cluster1"] ;
1 [label="Pop2010_x <= 12902.5\nentropy = 0.23\nsamples = 241\nvalue = [0, 232, 9]\nclass = Cluster1"] ;
0 -> 1 [labeldistance=2.5, labelangle=45, headlabel="True"] ;
2 [label="entropy = 0.0\nsamples = 210\nvalue = [0, 210, 0]\nclass = Cluster1"] ;
1 -> 2 ;
3 [label="PNHB <= 34.0\nentropy = 0.869\nsamples = 31\nvalue = [0, 22, 9]\nclass = Cluster1"] ;
1 -> 3 ;
4 [label="PCTPOP65 <= 18.55\nentropy = 0.619\nsamples = 26\nvalue = [0, 22, 4]\nclass = Cluster1"] ;
3 -> 4 ;
5 [label="Pop2010_x <= 13225.5\nentropy = 0.414\nsamples = 24\nvalue = [0, 22, 2]\nclass = Cluster1"] ;
4 -> 5 ;
6 [label="PNHNH <= 0.05\nentropy = 0.918\nsamples = 3\nvalue = [0, 1, 2]\nclass = Cluster2"] ;
5 -> 6 ;
7 [label="entropy = 0.0\nsamples = 1\nvalue = [0, 1, 0]\nclass = Cluster1"] ;
6 -> 7 ;
8 [label="entropy = 0.0\nsamples = 2\nvalue = [0, 0, 2]\nclass = Cluster2"] ;
6 -> 8 ;
9 [label="entropy = 0.0\nsamples = 21\nvalue = [0, 21, 0]\nclass = Cluster1"] ;
5 -> 9 ;
10 [label="entropy = 0.0\nsamples = 2\nvalue = [0, 0, 2]\nclass = Cluster2"] ;
4 -> 10 ;
11 [label="entropy = 0.0\nsamples = 5\nvalue = [0, 0, 5]\nclass = Cluster2"] ;
3 -> 11 ;
12 [label="Pop2010_x <= 29336.0\nentropy = 1.137\nsamples = 73\nvalue = [24, 3, 46]\nclass = Cluster2"] ;
0 -> 12 [labeldistance=2.5, labelangle=-45, headlabel="False"] ;
13 [label="PLT18SP <= 14.55\nentropy = 0.516\nsamples = 26\nvalue = [0, 3, 23]\nclass = Cluster2"] ;
12 -> 13 ;
14 [label="entropy = 0.0\nsamples = 2\nvalue = [0, 2, 0]\nclass = Cluster1"] ;
13 -> 14 ;
15 [label="PHISP <= 1.8\nentropy = 0.25\nsamples = 24\nvalue = [0, 1, 23]\nclass = Cluster2"] ;
13 -> 15 ;
16 [label="entropy = 0.0\nsamples = 1\nvalue = [0, 1, 0]\nclass = Cluster1"] ;
15 -> 16 ;
17 [label="entropy = 0.0\nsamples = 23\nvalue = [0, 0, 23]\nclass = Cluster2"] ;
15 -> 17 ;
18 [label="PLT18SP <= 23.7\nentropy = 1.0\nsamples = 47\nvalue = [24, 0, 23]\nclass = Cluster0"] ;
12 -> 18 ;
19 [label="entropy = 0.0\nsamples = 11\nvalue = [0, 0, 11]\nclass = Cluster2"] ;
18 -> 19 ;
20 [label="Pop2010_x <= 38556.0\nentropy = 0.918\nsamples = 36\nvalue = [24, 0, 12]\nclass = Cluster0"] ;
18 -> 20 ;
21 [label="PNHW <= 34.05\nentropy = 0.964\nsamples = 18\nvalue = [7, 0, 11]\nclass = Cluster2"] ;
20 -> 21 ;
22 [label="PNHT <= 1.3\nentropy = 0.592\nsamples = 7\nvalue = [6, 0, 1]\nclass = Cluster0"] ;
21 -> 22 ;
23 [label="entropy = 0.0\nsamples = 1\nvalue = [0, 0, 1]\nclass = Cluster2"] ;
22 -> 23 ;
24 [label="entropy = 0.0\nsamples = 6\nvalue = [6, 0, 0]\nclass = Cluster0"] ;
22 -> 24 ;
25 [label="PCTPOP65 <= 7.9\nentropy = 0.439\nsamples = 11\nvalue = [1, 0, 10]\nclass = Cluster2"] ;
21 -> 25 ;
26 [label="entropy = 0.0\nsamples = 1\nvalue = [1, 0, 0]\nclass = Cluster0"] ;
25 -> 26 ;
27 [label="entropy = 0.0\nsamples = 10\nvalue = [0, 0, 10]\nclass = Cluster2"] ;
25 -> 27 ;
28 [label="PNHB <= 9.8\nentropy = 0.31\nsamples = 18\nvalue = [17, 0, 1]\nclass = Cluster0"] ;
20 -> 28 ;
29 [label="PNHAI <= 0.25\nentropy = 1.0\nsamples = 2\nvalue = [1, 0, 1]\nclass = Cluster0"] ;
28 -> 29 ;
30 [label="entropy = 0.0\nsamples = 1\nvalue = [0, 0, 1]\nclass = Cluster2"] ;
29 -> 30 ;
31 [label="entropy = 0.0\nsamples = 1\nvalue = [1, 0, 0]\nclass = Cluster0"] ;
29 -> 31 ;
32 [label="entropy = 0.0\nsamples = 16\nvalue = [16, 0, 0]\nclass = Cluster0"] ;
28 -> 32 ;
}
